0.002728100535453516,0.007314890982152295,0.0032396686768377623,4.828693150518226E-4,0.0066336762177029015,9.431518538188833E-4,0.006586947137328856,0.0020713809198563858,0.006821840035013513,0.0010418942389073737,0.004610380411033922,0.005761999880763615,0.00968954778278788,0.007703308808314365,2.0202378939752742E-4,0.008269305809533993,9.072260488890871E-4,0.00962727823319707,0.008614356718534142,0.002677179126851965,0.0010822009940158362,0.00603820412404643,0.0017825312660049541,7.456141328250232E-5,0.0090544863139871,0.007778639408132627,0.001812573763749933,0.0049865006781419354,0.00702952085220722,0.004576584192404243,0.0019494532631109162,0.003664404846423326,0.01564766259402945,0.14129525066140433,-0.015010449205095146,-0.16288221074821,0.04112175077515389,0.019070730677864002,-0.10101796591587371,0.10421949121695133,-0.022321420173569285,0.09038283951972677,0.2967923792313634,0.06273485759204418,0.10548778957335359,0.011317145440704644,0.012670359665583992,0.02033382792665667,0.17785730224016205,0.013192805020927756,0.05144516397506732,0.16708710936816223,0.08786728397689732,0.006437849544227782,-0.1009322830189171,-0.008669373668585407,-0.06323394269092106,-0.15138011445127766,-0.11799102530906486,-0.09240124329106776,-0.021566082002206763,-0.023464936948146532,0.18788256907978804,-0.06716005909405579,-0.007557550345846605,0.300964243349575,0.03571141259762917,-0.20694708025520553,0.7631602781124938,-0.05775839181986876,-0.06056210278591506,-0.41558209328570545,0.09083597953661239,-0.2660195516707191,0.32494337404784823,0.16212773292013394,-0.1966124106030186,-0.050156474552359435,-0.030517691445142058,0.5233837158031153,-0.23170403236084539,0.21213485148055142,-1.1149099382021264E-4,-0.1387076207168673,0.009904622900742708,0.5139162228305022,-0.29664749110632666,-0.1125673390122028,-0.2396217372137957,0.03278904321216223,-0.12939082567276386,-0.2034379306401392,0.5473228561965021,0.16333458510989673,-0.06132574579574421,-0.675055426695682,0.14962671019944113,0.38783883682744436,0.2972695718778918,-0.08556912447261257,-0.27529709850465495,-0.19820085104972038,-0.38497446129849505,-0.4602592000743435,0.1874123770583878,0.014454690969789753,0.07609974075453593,0.3634719673337329,-0.45125202646170737,0.13372320259854742,2.1489062009682708E-5,0.36718137619533303,0.03648534200541801,0.12002308754714873,-0.02859446417224984,0.02887985988917117,2.1490980055040954E-4,0.006923804309249749,-0.015764367807503107,0.48190340355593697,0.31558013281121067,-0.20647992217141414,-0.02508621960755926,-0.23420494366920788,0.10215362255968631,-0.35650573745114145,-0.2198300438985145,-0.14777207223023173,0.41208071360602316,0.25855728752957,0.08091713958828226,-0.21017402943682686,0.12953378182789246,-0.07208709137042894,-0.6778105079589736,0.3787703877694697,0.10478825562020255,0.27565004737964127,0.32400293508415123,-0.02121067359232946,-0.2011909766340643,0.15651927945265168,-0.16950399557893578,0.08492151032858575,-0.20722028812036905,0.481377427693538,-0.24031008775934837,0.647208686425329,-0.14519980510132857,0.2164546157691642,-0.021180470919084742,0.074111600143555,-0.09891038647628726,-0.713155643747294,-0.3283893367033118,0.3046178215337409,0.4078684186468194,-0.3030008921250378,0.19386855490395738,-0.28969353618641114,-0.06100279822106067,0.651436959947772,0.3653072098067265,-0.17055469316746755,0.2636959527213986,-0.3541742888898689,-0.21183736118446383,0.11884404818815175,-0.11938748215308267,-0.45370534539659535,0.1965090526772067,0.2832811003422723,-0.29370040380934287,0.17008495051468703,-0.4252562992171611,-0.17733602889312125,-0.4494231415368946,0.5401111134495356,0.3757545526166961,0.305625633448065,-0.0069716651851720905,0.2862436965328074,-0.35538786277881473,-0.30354316824117644,0.13691202404849234,-0.6489046657470607,-0.06440747312076112,0.397198362112096,0.39902336234692326,-0.3815727683441166,0.004262571582833082,-0.5813867778017607,-0.029556632322397587,0.2902518576018817,0.005511315292439154,-0.24739934058133017,0.9076792783298233,-0.21009101763677354,-0.27414457953615123,-0.34601954836150417,-0.02313471608247779,-0.36798841689752104,0.2572965253736799,0.34563461965839737,-0.49266551129738556,-0.0515429032383098,-0.14556230251749655,0.052362538818543546,-0.4612001741105171,0.35217937274714467,-0.04022728115282256,0.3937276683733336,-0.20430049329979663,0.23025437757450895,-0.025096662572877543,-0.03547728792449702,0.0016814102846829907,-0.35443412563720883,-0.208580498067132,0.3251868205064468,0.9693981399872151,0.08689260047462313,0.1702689756829109,-0.697049489859378,-0.01098214364631925,-0.08159215859953912,-0.0019264137209151376,-0.1563475275296241,0.6130843550846236,0.13655963614727162,-0.02345339777528143,-0.24112702963477983,-0.006351542592797891,-0.18507350812277876,-0.011274047900674202,-0.02369626473675633,0.10741558783622802,0.012156238289679332,-0.06536591650202027,7.693054042358916E-4,-0.3157216109032027,0.08536883769469686,-0.2548308537885918,0.20396651354483683,-0.05975786526608345,0.05866699447195723,-0.12959068827486256,-0.1815269418884275,-0.2993686472898805,-0.01518901297575283,-0.03353826881725357,0.05178967442853658,0.5900977679309989,0.03148913729760629,0.06543675328952875,0.20492348083333814,0.029512520930481585,-0.028213329419494226,0.009724349840609528,0.01746049028150716,1.596960103778054E-4,0.001436375487796306,0.004412415032262254,8.331567665870787E-4,-0.10310957765615897,0.007000488455179007,0.11541191443126034,0.0012864619262967834,0.008508372879626781,0.011623064245095488,0.00224371351323286,-0.04298399792444811,0.008136012061945396,5.516168740266004E-4,0.010587448537794664,0.0052945505814126735,0.09813031295869092,-0.030235356635355155,0.011175519338260815,0.005872039608491505,0.003346099508687368,-0.07499771144812306,0.009486903567538108,0.0014186183866558928,0.004930133781362517,0.0032065045014942413,0.058121470759724396,0.0021861917411814934,-0.057152713696737564,0.05596198572209149,0.06268167616764177,0.09663591321294604,-0.21151724874511493,-0.11842190582287646,-0.3364251712888576,0.17793341250477368,-0.4670562785883207,0.05328827216532091,0.6575493192085609,0.2672444298531095,-0.03716388525626695,-0.009480195467797159,0.3462040138147326,-0.013911253794550611,0.2844889170993548,-0.17717971625409645,0.06770986018193896,0.4478306220368414,0.006611671513101247,0.37989914602545427,0.06794340195664576,0.2202989108800921,-0.1304912417145297,-0.7282890280146048,-0.15174500353219467,-0.08526715644139062,-0.3626911285926258,-0.22749714698040208,0.18426998927263222,-0.37541270503647217,0.3155745310870219,0.5667487296095935,-0.2888092682628398,-0.20421275734117159,0.039658378999153934,-0.1960188467878745,-1.220320339628413,-0.11367262823322483,-0.3290166778633292,0.2409293686030487,1.0453633873174273,0.18797150117435196,-0.23635256318014858,0.06920825993651183,0.022037961643752334,0.3112510453555246,0.2873778831345675,-0.2707013647905302,0.13288395082941407,0.5342077642492167,0.4646307258698514,0.20537799886608687,0.23874070973288147,0.25997848420458025,-0.20479130301162662,-1.0760797096111139,0.050334869301491995,-0.2274453461649443,-0.3915459769339084,-0.09808961974028256,0.10599693135275952,-0.5897488834421678,-0.26002501608362083,0.3903268663394819,-0.21973361564791605,-0.4659356742707316,0.6703308330221593,0.1317205060734763,-0.32181466633693884,-0.5848249046193177,0.42287430455413716,0.2814965200420684,0.6118170430571762,-0.007233886737712083,-0.44831104561673796,0.0754495392204807,-0.19782658970828887,0.09630280794805789,-0.2645601591073392,0.21867265681430834,0.2105339996998943,0.8712679712454942,-0.18146250226828742,0.3643982011213728,-0.07105786924306487,0.38033098193595394,-0.3994783781241076,-0.5829421805033977,-0.15358766866423182,-0.02059893445175119,0.7644260334138895,0.10328955253336793,-0.20246229982638977,-0.833556549849184,-0.306748706135751,1.018786154363952,-0.11703646005083453,-0.5814681663328919,-0.11928439793515755,0.3730989350138203,0.25503930234122335,0.17337310967852104,0.051435490011439634,-0.3665323398873672,0.47824391256658505,0.15468537268314175,-0.18946640252072267,0.32806548416051096,0.3240191372515507,-0.04613058754544076,-0.35152183971828543,-0.1651295847491149,0.7022548989642365,0.0723454607774485,-0.29336481251720287,0.3140617468293002,-0.21588666164680345,0.3395010069822301,-0.11212959004572319,-0.7888235159300427,-0.3720219763768153,-0.21011853302462144,0.21478537529433517,0.5012439627772913,0.34568813916493124,-0.4697768403698488,0.22500940756883148,0.3911759246878441,0.08292174069004776,0.2003686014907652,-0.036204153681989,-0.1964067743161112,-0.6209652963692947,-0.036271196659818816,-0.06627099207298236,-0.4161555859297432,0.5600778783304474,0.3544728722355673,-0.21331496568008285,0.23527972179293333,0.18095645554975787,0.2093506403034415,0.15706490989922905,-0.2695390916714336,0.6836394185842469,-0.29728652888527035,0.4864747818954392,-0.08984615442955363,-0.1790642850061536,0.0032709556697772127,0.3425045285511699,-0.3363272064889918,-0.07274844301437083,-0.13772287910465872,-0.010110645303429661,-0.17117767491659586,0.16729234822538674,0.05523326321547245,-0.16742636264003694,-0.45076870622164344,-0.07539720027564094,-0.04613825594001964,0.23148934771592738,0.03211859902928697,-0.23459473788802457,0.2349960608020965,0.06410072445098597,0.35762830897968034,0.2534077544261298,0.45836539138910054,-0.25340854807701346,0.0754358411447997,0.41653029242452455,0.06746375952834152,0.45877013340250417,-0.3918237030274765,-0.3382217043309918,0.21072600538728845,-0.3225846258749384,0.3563167930055949,-0.08038922024470507,0.014567213935414726,-0.03003242203414362,0.19376570298509319,0.04196166014372569,0.034747160313058106,-0.696396095065415,-0.011145866882510017,0.047508374123988575,0.1349360326622747,-0.07069387764935021,-0.02369843141479742,0.035224900262804844,0.02377516879133159,0.4055828349391415,0.06876261651016088,-0.07333136912240514,-0.054476623354169626,0.011596054467657803,-0.014087954804800682,0.039626056440157535,0.07242939480607259,0.0408633635690926,0.037957584379460535,0.04937288562596202,-0.03598488687613809,-0.03320912123526825,0.034833444038094616,-0.19651364856593276,0.11196288423322744,-0.03928198955550889,0.10368014190230795,0.034114773400758296,-0.06061899163167961,-0.1423971732043735,-0.1272316669210963,0.036450471681579694,0.09575028912498859,0.16604335407460613,0.04737273808688172,0.087922146794474,0.04865942337682493,0.0017763204038589442,0.00214894649466139,0.008846545909032121,0.01164597517063999,0.016676979485127696,-0.0025803585369446355,0.03820813446407549,0.001960506197569455,0.005140307595535842,0.0033323859966680244,-0.016139717262245078,0.005317678362156845,0.009804322287778444,0.020102655906531364,0.004867212297748098,-0.019090986350914003,0.0031542378044168247,0.007653131378489767,0.009635614246584594,0.0035633931187842452,0.03224827936479207,0.022051247072883244,0.006601102312652133,3.4265594374628043E-4,5.870074085804331E-4,0.011597956304040815,-0.0037597272027435976,0.007898967787355078,-0.015280723573028426,-0.006098023438214701,0.019866849846289246,0.010767455532235803,0.46972784642107995,-0.08688708425408805,0.24741736587449703,0.11703736754059638,-0.16574205793535907,-0.0515633171283167,0.18497944195895924,0.11502874335409825,-0.6849106097999794,-0.3438182747618132,-0.1294111910692564,0.17577081541586972,0.12721525194527616,-2.3021278191066725E-4,-0.5214211538431164,-0.11175980038785514,0.020928824851168492,-0.06400681315525447,0.13045917923690725,-0.33040414681538843,0.14457898417848616,0.041604131749514994,0.2950177041269184,-0.19050240713773278,0.06705881015505204,-0.05467500570939536,0.24994482567156298,0.12559427482135352,-0.18190713534512915,-0.20653638929873977,0.29564946955075805,0.27968347233368696,0.41545943947937164,-0.6615617454376754,-0.15249436772571678,0.8462565845803085,0.24973467559207416,-0.35425653697348525,0.1713504914185292,-0.6926863501696744,-0.45861905951556875,-0.4888537663577014,-0.2190174223056883,-0.14437155609999272,0.056579118699191,-0.017408481406896197,0.12489069592667774,-0.1321010483699,-0.38252526136187653,-1.0325818791015229,0.23933038228473644,-0.4479613743500089,-0.02186270681492289,-0.20763334688302879,0.6828136457615145,0.12882930355504507,0.457174746001484,0.5843329707075965,0.8392007207515261,0.48760685194378217,0.2761347579497643,-0.09092903003590751,-0.35413092866620044,0.7428004020106114,-0.1128856456971118,-0.21899696032043842,0.5562673424553354,0.5736518902851031,-0.05514748705542805,-0.29912138510171643,0.7533056941407951,-0.5234046041372271,-0.09995940038678804,-0.5054354231146573,-1.3295073817829937,-0.287795001215567,0.010286349481809844,0.30727643544829364,-0.311215473055387,0.5162161949897341,-0.42745758940228196,-0.42954452535779525,0.20155430946223088,-1.0517092824449994,-0.35686068060380316,0.16177760079322065,0.877532651381663,-0.01086047600911478,0.4133907439017082,1.3878185060851722,0.12520600236857551,0.6432255314349047,-0.5504179171490869,-0.6948218583990201,-0.5526275633848652,0.5290213447353327,-0.4837976907580746,0.3425520794436261,0.31010919072085175,-0.25308191758206283,-0.6312964955164133,0.027132266344440242,0.45286322798552175,0.46333055834495995,0.5924743986868423,0.0038208904177866117,-0.006062377028956276,0.2730909639580688,0.2731243380168283,0.329007274864381,0.31221863520722887,0.2390662921150871,0.3167853164230834,0.019906571265296782,0.3021528933919393,-0.7450647200899059,-0.8968257988318359,0.2352051739314485,-0.2819497826107304,-0.1727339644843363,0.3082153114621976,0.10031585154783396,-0.70715390521327,-0.32107411354193033,-0.47372319641288474,-0.10432703488163707,-0.5387707386039667,-0.13189155997366803,0.04802790361118704,0.08087577467654522,-0.11177355906276379,0.33010750827458546,-0.8544212554725722,-0.09422910667921794,-0.393994393427237,-0.015518866833775683,0.04150787349187088,-0.06069031035329607,0.3054505347264212,0.23486390277509148,-0.27400072555827787,0.15199479086607146,0.619763506652176,0.47836448791813924,1.1927719670164878,-1.3729889718984338,0.04644569793512746,-1.051968476532557,0.3829768967509896,-0.015414816241549327,-0.08781269669301868,1.0001644228213318,-0.6794210729666597,-0.6219853145949197,0.3213524909959612,-0.6094364019382119,-1.1174701936190425,0.08724780980377873,-0.14787921940073773,0.3587779923938872,-0.12370519826017543,0.43796712822607253,-0.09512502266881366,0.03137401129423136,-0.7957408334122767,0.15440889932768684,-0.22344605448590604,0.18472703767359844,-0.05880986044799515,0.19760094410931556,0.44228775869402576,0.3398674461402499,0.3810919868375838,0.14136721785443976,0.4414490403475149,-0.03735923189246554,0.8259786659432068,-0.35679031929223914,-0.11547541523511866,-0.42558940821628793,0.416245791362677,0.029479840589650957,0.1819826838463152,0.3658108831918379,0.13983774565717433,-0.4517899898541805,0.046844579896034695,0.034437698551271746,-0.6034498949581036,0.21411233113583886,-0.046782128667204055,-0.02840384306163543,-0.028188931975216824,0.08238273960640752,0.014506826686807639,0.06528450511194313,0.012865987931059766,0.0785610435473608,-0.028053131577895133,0.009609812240441879,0.020671412082685105,0.030369856959977296,0.08110388827809877,0.05485214895632055,0.00139260760535211,0.0068192824525879926,0.008055005744310215,-0.007151771558922772,0.06720963577226342,0.0515514724955263,0.020194257893248167,0.04745044690718652,-0.009595614534642064,0.027291765306882976,0.0029287597963595633,0.008105833113916602,-7.960809197836205E-4,-0.07371160675128734,0.016219417709612133,0.05888966687140003,-0.01137539705156953,0.003179531742626919,-0.010716715898709431,-0.02224289415970046,0.004017804116489475,0.004265639668146833,0.004567808941209696,0.003607895936520809,1.959622602456753E-4,0.005851375498050608,0.010679408656800041,0.007788386187329489,0.005766094175539328,0.006178713746077425,-0.004387049116216844,0.004765937857400662,0.010618803799737717,0.0037452970188035727,0.001058808300263006,0.0038783731650565345,0.0020508970051492386,0.005411572561694097,0.005193346399646013,0.003482705502987588,0.008488152557422201,0.00844134088734013,0.004223718838821107,0.004753814814324284,5.527602112551259E-4,0.006412621301776854,0.002689517064493863,0.005726646861464011,-7.801696593802319E-4,0.00550119816459796,0.009186895957049673,0.018228112801080953,0.11492556158933898,-0.12450305960076688,0.10558528050152244,0.24218099606381205,0.10147135381890907,-0.22653142730183706,0.06424150444058511,-0.14568967135503447,-0.04935772474691077,-0.06989161143253449,0.061567048417645216,-0.47071205364836627,0.1977793049027296,0.08245622694112208,-0.055161433472641776,-0.09869312755513637,-0.24595292898653381,-0.1442378031593443,0.16683975560532543,-0.08326649084625,-0.10883490897154713,0.15784820180611547,0.07065585382196053,-0.3773145266808903,-0.36648643069736675,0.5027804255315242,-0.06799227412420335,0.2959102856577321,0.0062540794508693836,0.12015047480206918,0.1698496599764012,0.1441634659702738,-0.12588826419165608,-0.3287554825686813,0.16677389589598637,0.5062287831563378,0.32921995721381636,-0.19041307835414353,0.081467614439176,-0.8087775427707617,0.11394062642717655,-0.24466653192317583,0.05542640946263767,-0.4410023380675062,-0.15202099479705736,0.4107423360846771,0.4657092316906005,-0.3260105485417421,-0.49913314834793326,-0.004798509201239648,-0.13786596671529924,-0.4996614929582872,-0.24120785120150692,0.14301954368519904,0.9725381937686984,-0.04315712392633146,0.16856878205427242,0.5233024861493726,0.19427533343739167,0.5483749715666179,0.1919229239164734,-0.04247852908945878,-0.04272815187377066,-0.13246629461017348,-0.059382496663771434,-0.7361287527806637,0.6831283564254395,0.26054874810665324,-0.22359231353254994,0.08675904047513874,-0.35031315941777613,0.04587866067378827,-0.3917057477627758,-0.2092179679239488,-0.24084839128898056,0.02810162322483411,0.5216137290165916,0.40695946975181374,0.2072942821116897,0.113401720638492,-0.004774559697805339,-0.014987454192514958,0.1467677712736593,-0.5415213110259709,0.22066454079070655,-0.09582879534936242,0.004175489469888749,-0.46392866768058194,-0.1545546932033807,0.03763813052596594,0.7696146617617718,0.3685758041592887,-0.4323641867026468,-0.43208475632322485,-0.032085989860037356,0.3804334369894718,-0.19245262160461987,-0.006767315963825516,0.2945369584784704,-0.1993217267287991,-0.41606340585967727,0.08568428799483771,-0.21450458115129378,0.5269751037738823,-0.1608648821587414,-0.44012874072328717,0.07071451670107695,0.39868567200947075,0.4371175531411243,0.31126339219593707,-0.6372762172437696,-0.05367032761618826,0.44587832491793505,0.234866217652165,0.4655572904554416,0.04213096356774496,-0.3826654091845343,0.05111267493926578,-0.569783349847453,0.12261067413912069,0.4563535518702969,0.3572764282652067,-0.7060100199945989,0.709559467417584,-0.7310523799946814,-0.3916839236467478,-0.26648704797795014,-0.3466690803349053,-0.19932173452826935,0.20331727447700906,0.25070695683371136,0.11838825132237088,0.09665982615899948,-0.04622288367358237,-0.014208488412428492,-0.3689444585270949,-0.14475350021861685,-0.49144146762953456,-0.05900827629087715,0.2226709611275847,-0.0017081263191465988,0.2415060640950706,0.41657471666440243,0.09393025566678527,0.21841021500496777,-0.20150089332117274,-0.21360239638724798,-0.6170033411414398,-0.244053391691677,-0.029257649357784837,0.5968160201414535,0.2050643197250833,0.007439212003039375,-0.15730095663483915,0.8158056828721446,0.35217822426314616,0.07099345995910332,-0.30621721488456854,-0.9731325990608528,-0.03695546702968281,-0.2665480939223139,-0.43654601285794226,0.27772142208815487,-0.04242213423600764,0.7299029289257678,0.37105099399043406,-0.27583784665163635,-0.4259251186013184,0.3990539060791185,0.06973186536758137,0.038320796138765656,-0.5299458300453999,0.6702741914311597,0.5616302075189944,0.8512720235698911,0.40654748575651506,0.07821106731011924,0.0916750417035351,-0.6576420430566127,-0.39930911713633815,0.12669683390756292,0.21274770166823848,-0.03741155583234166,0.8089680147433038,-0.8916195641567868,0.013703044965464789,0.22875152548026836,-0.30745804089415646,0.557975118724306,0.16596159120257314,-0.6139211948946237,0.4125217905280633,0.003619881516008976,0.005715692686552459,0.011894135858936002,0.0033630127113588753,0.005798046771873958,0.0034828305442531826,0.007908985243198842,0.0036488878578775133,0.009656008137665244,0.001795974626879351,0.0020150436382149733,0.0016273899688372968,0.005873429828793354,0.003460535290170087,0.008900734683447212,0.008179814262552113,0.0034796330472779474,0.0060962648241748105,-4.8635456395595614E-4,0.0017318931524363463,0.0072090085915038175,0.010242896964247001,0.008657536281770769,0.008690720994815677,-2.899795057077751E-4,0.008078774094913865,0.00927300664531276,0.001394812846198984,0.00248374918448099,0.006874999096122505,0.0023786607816666766,0.005791050176806001,0.0028690194799527503,0.005672982628765059,0.0035332619585812294,0.009148995919054347,0.0024181693779997213,0.007661011351656776,0.010130575926656038,0.0054058012245863886,0.009632825908094566,0.0073786901928627295,0.009904006539708575,0.008291008160447177,0.0059041487656653025,0.007291548431610234,0.0016848727189308138,0.0026333652565093037,2.462835388862133E-4,0.002002050166436305,0.006381747925351582,0.005548073723113204,0.005531138697609459,0.0070127677466087475,0.006898732053935395,0.009297472119854893,0.003683900669203518,0.010036415929475398,0.006012806226744609,0.008722930631050887,6.984806522467093E-5,0.006831867557218369,0.006782765434856584,0.0028168450954844646,-0.023612724527027753,-0.15688565322277603,0.05489503335756691,0.030134332693130914,0.43538398835643993,-0.16450503988932952,-0.002476521767403457,-0.44606262505387256,0.3703048570387828,0.3525253155096455,-0.4226857204801137,-0.24257651317071138,-0.23875205173969044,0.019830003279014866,0.3941854400964645,0.09795482289434845,-0.12396546481624683,0.26469527834326806,-0.34187007028061855,0.49531546850374136,-0.24244341625734778,0.4873095461301246,-0.17867718916981035,0.24431111926106192,-0.5442378249581059,0.053978618470769464,0.12886766539242447,0.0068303860999770856,0.43778463232261244,0.07324344088740499,-0.051922806622513765,0.21071929052359675,-0.5231907909887064,-0.2528713351885213,-0.2921664251923945,0.6610676954134082,0.22093025814477368,-0.08080736187071941,0.08093453371778603,-0.1224969873845181,-0.06447295304492529,0.1510838129075666,-0.10458700243574609,-0.09463421338536063,0.062304130383684736,0.27365101167864136,0.3479124697054455,-0.10369384386842047,0.3773219550864462,-0.22529178461742283,-0.18075384046033952,0.02431517587561476,-0.43410723186111905,0.0681915120829835,0.23812061996598655,0.1380886093921276,-0.4471205871519383,0.32889023808287293,0.45344838849555413,0.1563963763986838,-0.3179086923917567,-0.18946846538786355,0.12570957066198699,0.011407630033430049,-0.13587515884588047,0.15523664359262707,0.5498545789699252,-0.00989275204792747,-0.2028534649291144,0.12447772486200849,-0.33757132864488415,0.48422141140103175,-0.28647475011477574,0.5091502699403337,-0.2839248297111811,0.3619874049420737,0.12969018745661248,0.1603053385743164,-0.4546528125550058,-0.6831783513709436,-0.15154608558386934,0.005806243048658589,0.22644188907944518,-0.32016449735714636,0.5271572807751967,0.0957566829685257,-0.3696348190730942,0.033661545212452106,0.05980584427065457,-0.12015640297260335,0.48598619861716497,0.06871695435811302,-0.09790705669085539,-0.3718033298848266,-0.08994678800823036,0.08878758838850792,-0.6298122035571833,-0.552599984421801,0.1078155488699567,-0.35013238378747474,-0.31988848283071647,0.5536189985935255,-0.2268620202384097,0.5613064896901989,-0.3881162640927635,0.11534626346723274,-0.5108380827029542,0.3400121123483406,0.49080518527577643,-0.31908559782004364,-0.13809263438471228,-0.05958449542758823,0.3542575541534861,0.05071120706913841,-0.22866049457354343,0.032813603953518886,-0.3306691095522232,0.07088457807410786,-0.6515279424347279,-0.06270130581735325,0.06884936800275072,0.2848668735887014,-0.763819888433959,0.5819328240428076,0.03829370768904336,-0.23103169318421324,-0.20549296605670278,0.009703084140409974,-0.6671613571291314,-0.5956199604044189,0.2753926978012929,-0.33626399569486143,0.34778619969634533,0.1816441052797554,0.22845058428462026,0.3009420042712358,0.4775548223285588,0.43266731209341075,-0.43533718297591006,-0.5071365721743777,0.10748000784709436,-0.005363352108507528,1.103148995542073,0.16572988979273515,0.5117673409000868,0.4131749518202856,-0.19897008481760708,0.4249110948724002,-0.7331591027427068,0.3256826601395154,-0.6707472222651119,0.6992639089626136,0.12271854559067563,0.610024103822865,-0.5461591672400992,0.2865794765690503,-0.44232155572256737,-0.07869157987076317,-0.39151431337660614,-0.30815712548297153,-0.060623225070943296,-0.36354325815955796,0.24802260954860242,-0.12867614862266535,0.7444918600860335,0.0186953732352913,-0.3945801595349351,-0.5356951873974267,0.5536126592544277,0.6482973160938574,0.03447136442701982,-0.5010161127275082,-0.3255937476447893,0.5160564253154896,0.18875545715670874,0.4461270432002812,-0.49634314185455547,0.27967997398261374,-0.7926088303792644,0.3575049556151625,0.06021563905769247,0.6241550574914105,-0.23340334443128544,0.5447376726184239,-1.1255334465474058,-0.03451356926360847,0.3060348208065822,-0.27476032346775464,0.5652911281991408,-0.1306628346998534,-0.23184078063171668,-0.010852526893387284,0.0014332664546391728,0.001802475549810686,0.0062834655847376795,0.0026791598300954732,0.0018251690724845504,0.0016785125584027815,0.009949939450072044,0.0012800804157961044,0.005230773135399621,0.008585400415513632,0.0044542687480812635,0.0038721157156263466,0.009877588663704482,0.007611350702895352,0.009783434107399819,0.0010973678968343148,2.9427943024071257E-4,0.0040855871902374585,0.0037176606793936397,0.0019713344888115138,0.004607747152519865,0.007153313985471513,0.006127600982315532,0.0038729096430636847,0.005413494514336545,0.009483398659607201,0.008667406576496037,0.0060115393891722576,8.283606004846611E-4,0.006382854033447172,0.004786329780081247,0.004257414930388277,-5.665458086882069E-4,-0.017649102947697913,0.030688816719243516,0.018985416685079366,0.03022231488928196,0.007985399405866168,0.008578558769858743,-0.011232884709987867,0.005341382131809968,0.024204502934303918,0.004735413247522492,-0.008942270560137548,0.009361108358176402,0.016369627215269775,0.02862196651135591,0.02415756112135934,0.006170779082052994,0.00985677019636697,-0.00172698189098327,-0.019270413708862837,-0.002228485783099614,0.01953722408149138,0.02247679601805421,0.027213262789481784,-0.0012691314989496597,0.007198820837033002,0.03602224687585866,0.0030194962161847914,-0.013357774807110203,0.027074079118771726,0.0032726751613352824,0.0035957427914375226,-0.36963963404679206,-0.6812452945794385,0.7084325516297698,0.11306607321535175,-0.0874952334190699,0.2125815864618209,0.1529305989035499,-0.07818168778429913,-0.13896458922819735,0.14320890070616518,-0.2534763918763665,-0.0843436153428417,0.3742958732518091,0.17990177330109255,0.6709160047917316,0.47090338591856507,0.2687335199270962,-0.05506061434285862,-0.17837894984210848,-0.5548793184757491,-0.4689368817805487,-0.042939265724752214,0.09554930214308052,0.2639201600195055,-0.66983775316731,0.012447997346872805,0.4255253944418216,0.013844531965278493,-0.2536487722464672,0.04733055585409556,-0.10482482901856252,0.40139634042308203,0.1410535742035308,-0.03886652173823638,-0.9548658373755096,0.3708641667610122,-0.17030614623716409,0.6791372348652798,0.3110279798566711,0.8285547106764063,-0.14368532692439978,-0.1211544551202,-0.5246933711277303,-0.3489880050780876,1.224785880650326,-0.6723666045913834,-0.37082417853127486,-0.2401704345928516,0.9907632715031214,-0.15794581170496905,-0.6613501476259184,0.05221569977624351,0.4793128851003749,-1.4634108879566505,0.6305002696851373,0.0324678908219593,-0.12264305459888121,0.38364065235290357,0.5753864848670989,0.2464510354392732,0.32025045615548176,0.8375463069424959,0.7288818215821966,1.8007054598654137,-0.8811454400348071,-0.3739690878305825,-0.3203612276115495,0.06738026096030625,-0.005032021570981795,0.6959510237884124,0.8591948449691836,0.9843275344066321,0.13619439933692107,-0.7068017263059003,-0.6085571626556531,0.04187181879444631,0.6975772626705353,-0.4405793444787699,-0.13510125325244357,-0.14382875146609406,0.1345763026046614,0.5649638873282323,-0.5124286510034619,-0.12331757544325193,-0.51434238576197,-0.6376101760681508,0.3260450626971814,-0.03468646502560699,-0.34241123371858906,0.49899922977472827,-0.16534764037579508,0.4465370858215699,0.5843634637388047,0.29777407405868245,-0.4102750684525791,0.6938854428652813,-0.24951087712368406,-0.1029378132193808,0.7656280730872793,0.17778768154004396,0.40248769497688297,0.31028746111404026,0.564500147403026,-0.06763064862514788,0.0574949882663188,0.10127387518309673,-0.8675637601586945,-0.16856999538461226,0.45913936933734134,-0.049767520979122064,0.22519147138176573,0.33102040640479935,0.4217226326992208,0.497535779271162,-0.5067731055846356,-0.04458614666116674,-0.5236756249553906,0.02408377744163579,-0.29816966964490593,-0.35765030857598934,-0.4936674774917305,0.8707460053061141,-0.4211188745354176,0.5850962402950398,-0.5758398614068244,-0.5013463978970817,-0.10194287284308708,0.9496477856556577,-0.1656274213711455,-0.09515336575979537,-0.022650172532691734,0.20022016699015358,0.3438826790416299,-0.48605513226306646,-0.3813973901879238,-0.32472237196000964,-0.1787184229894594,0.48166384339852886,0.1719181549531801,-0.4308554849407811,-0.35560537855984625,0.5163917805137236,0.3761082397494283,-0.4981994240738752,-0.11019912072873989,-0.027450953673815368,-0.21772699551894736,-0.0727278482659294,0.017302508463713857,0.19205616138676157,-0.387690777239932,0.21675832549430818,0.42278604863117103,-0.05308168587795551,0.383733582742018,-0.13139298721550868,-0.34136409310078064,0.035469135257455195,0.70898824666462,0.5488875768232301,0.5608166285948517,-0.07595666297964293,-0.06202840178552717,0.12329809780878322,0.30720041765545186,-0.5264345148864294,-0.17495058925761747,0.3571907296070362,0.10991500625978032,0.6905064707449738,-0.47186656544278,-0.21303311197823424,-0.2313371752543764,0.4230187538867349,-0.6490338529382096,-0.5209733084446577,-0.34759071949762427,0.08481212243186832,-0.4294306235817052,0.34200428129513255,0.5146586645764201,-0.06257959504552704,-0.5800099900991694,-0.15374992678402621,-0.049689889831476416,0.20169581642886275,0.4079694659566076,0.07195935406678568,-0.3715233113104166,-0.2894376446965596,0.7108993575184879,0.5343671786246537,0.05653920685114966,1.1242205797274409E-4,-0.025875242837728372,0.005303666299087251,0.04131972067473081,0.005836396676730162,0.0018590006859868734,-0.0024036239585622466,0.011456970180094195,0.020857568498424992,-0.011121100553929264,0.002686175618235338,-0.010428639019746333,0.006600539622284905,-0.036864856341704236,-0.03814161638942937,-0.03409360274303405,0.013841873820713538,-7.262021977366493E-4,0.030164691516709315,0.08415155836821431,0.016600910507412255,0.009442469823896833,-0.011107346666975838,0.03529874193589246,0.014011882260189575,0.014338435308088026,0.010374486385597717,0.01559016578591034,-0.0016700902027199285,0.01986597783565289,0.0015735172438070054,-0.013597416094959408,-0.02062579860391662,-0.0033390667304170384,0.008020957198465737,0.008879963737860909,0.007768867968775486,0.01608356847859032,-0.006995795849559853,0.00393521604914486,0.018058333511795848,0.001490189548940384,-0.0022521702022347337,0.010561227607376744,-0.042634094799860266,0.01563414235812745,0.011040829347399993,0.008357093242686775,0.0053175601427033325,-0.0011102847671709977,-0.004741897977889654,-0.01925012300170704,0.006561806417791487,0.016197874800834094,0.025466721627648247,-0.017948452242356375,0.004977744634344101,0.03084583737887046,-0.04540629659711541,0.007216383718212953,0.015586741812965094,0.0075109610027343995,-0.007902600913307427,-0.3917711350915248,-0.47279054665954867,0.3136266995286044,-0.2528341098209247,-0.2766799113035126,0.2537469311373945,0.2223386175381601,0.17392085435176027,-0.13547690041412438,-0.008890436252592398,0.21391474343910752,-0.011252386926086856,0.26645179628694715,0.29735162961256323,-0.07209211479675236,0.5480383246043363,0.3023203445655424,0.23355181240532571,0.17930739902090875,-0.3163326119793424,-0.3183939425403397,-0.23445915468854167,-0.003225978153553813,-0.15144692680912794,-0.5501047860849997,-0.43378142999258607,0.015907199124465796,-0.21946311587168593,0.06123047009722848,0.27017471297773743,0.09346400691978027,-0.2621973381939601,0.18264230166425754,0.016998750132246228,-0.01948187174794397,0.18749996016712248,0.22662149567923,0.2664732817180373,-0.08234126883464185,0.18967278676914526,-0.2633266990370315,-0.28067549018253474,0.4353885163270074,-0.1640850819854985,0.10068866397423834,-0.11013654652025921,0.02328509563465394,-0.04164907361071323,-0.2415172244416228,-0.015598010650085956,-0.2356217811098531,-0.14748928304785397,0.237320859122963,0.002406420539167672,0.23201662792427857,-0.47898729439386606,-0.07893303387188598,-0.1784734871045375,0.2583702791002972,-0.10048252912879442,-0.1308256371241467,-0.09688148945961932,0.19153472513309222,-0.10938161446295852,0.3992065577140847,-0.33181879828125943,-0.8244647875008063,-0.24176272426660916,0.2725575245328188,0.3397182238800081,0.6958619099523203,-0.08120276756041898,0.36904784477475366,0.42934089108213014,-0.18325116478171094,-0.10411217788335898,0.12560352024515745,-0.4376965288192589,0.137552118038153,0.1160384327513717,0.031057100207725764,0.13763558301654288,-0.46923177380577047,0.549717496927463,0.01614947536675768,-0.24978487773024774,-0.03287705408435504,-0.15650370442905104,-0.06587300276716081,0.4840723144609077,-0.15210011099019657,-0.4439251462432129,0.49466025934886765,0.43855347120662197,0.17993526390095158,-0.30217135127102185,0.7464474436738672,0.5430367193761825,-0.09126796565190143,0.03408711082262037,-0.19793837864750233,0.11794969508546127,0.9383747104191287,0.06148359123980715,0.07355076765419905,-0.2753973010631878,-0.21420173960665195,-0.12294717643479962,0.016023666776666504,-0.23520267137597417,-0.4454449633178414,0.5873654708756963,-0.1287923760916092,0.2016149309316734,0.10819553726412819,-0.08251912692296356,0.26172380649095706,-0.5571244086050132,0.56864329460524,-0.7719005296633871,0.04872247615192995,0.08968249184149009,-0.34334191655089186,-0.38209917492466045,0.4402219104560125,0.6762734230244473,0.7582700977780733,-0.059350571691268436,0.5040428634772662,0.1903821883527199,-0.3722625524864541,-0.2748937274500198,-0.3692865748746956,-0.2970284934818822,0.329155898477079,0.6040200510111273,-0.2723800264308871,0.28108482999376755,0.15990227722521716,-0.07199665373244901,0.05785470424027838,0.03879131224244986,-0.7339548563075768,-0.5688272129407049,0.3839064232276618,0.03567702885259559,-0.02859525126873333,0.27013897004859416,0.752671702885677,-0.44332020025284447,0.074641027924633,-1.0114217332419464,0.07173893486421204,-0.2402774785861002,0.14229265384070158,-0.8312564282375661,-0.1447924355440403,0.7321161367693795,0.7633539789291818,0.1692064327030591,0.5876067328315809,-0.11545200960325695,0.12869981296441155,0.018789707893790843,0.16836805245124736,0.028937702485729667,0.27133514425016875,0.08390512460169007,0.4047831437945701,-0.11388418443447473,0.16857214832648906,0.08130440767284047,0.04061179457039879,-0.3174386485998557,-0.1392544880161642,0.10048958636012224,-0.005852809171551057,-0.04057419900550923,0.042411345320046014,-0.4891265788565731,0.4353799631710852,-0.027181130745295493,-0.0517866304184091,-0.23244943926507028,0.5412402175949149,0.04936204142262863,-0.2438043888464903,-0.06701545413687217,0.07232768757258648,0.007851717304526369,0.1295358170289437,0.14935341776012998,0.10283690494992458,0.027305504845036625,-0.1414101669851358,0.04238797972630244,-0.020453985804679022,0.05233443546896957,0.07841187384080024,0.08759302571312064,0.026053161941612266,-0.08094560820418714,-0.011425794876752928,-0.01298727325335052,0.01065155936895606,-0.2287171238212764,-0.071146182936532,-0.009376766192091716,-0.10841487083558507,-0.00497547643053684,0.009115764754763177,-0.06727837983364399,0.07493561137478337,-0.09480518082625344,-0.005708256019548192,0.013843472440678822,0.04571441303019196,-0.016657000227467043,-0.018659142966013027,0.08435514379369803,0.03866595578027508,0.10265085486028695,-0.022081968867807767,0.12154035280499349,0.004303019834692337,0.0038568656381204034,9.901521206820121E-4,-6.302428704744356E-4,0.00434775823891731,0.006251952359683265,0.0103338086733499,0.00296743313815377,7.584465257857206E-4,0.003067921343481759,0.0062096807375146175,0.004848541297232373,4.6670642121084745E-4,-0.009329408136774946,0.0057529299465314985,0.004299331452949059,0.003782195243370289,8.369555228288499E-4,0.0015163880575904708,0.00952816509551661,0.005281967940742163,0.0014765665641912377,0.008452903392456081,0.0037888633867989414,0.0017323131688141429,0.0015160039674648634,0.004021226129249948,-0.007402332878633867,0.003293985052252968,0.004894258284864972,0.004633785288162885,0.0059720204556258285,-0.020924968161407164,0.11015269971444437,-0.11928787148668694,-0.1932178122189642,-0.043886056541553205,-0.047210171221081995,0.12313256913304627,0.060962201940385916,0.13014271435375396,0.15914280917367532,0.16820575433259546,0.053973044472969293,-0.006689003340534022,-0.034953153969667757,-0.05877019180097403,0.1042573867295645,0.2265345171096571,0.09581183980176512,0.07917312889243916,0.18698471595831898,-0.05416433817860799,-0.05455268489686058,-0.11658389285853756,-0.031572708651090485,0.08457117782674135,0.04674725039741686,-0.22708382161559193,-0.3284754764646198,-0.061517502737025484,0.12085770711761233,0.20382691667261882,-0.16073868056934676,0.36632266752774406,0.3476308948021511,-0.060275666458949266,-0.3820046556297185,0.04717135573454537,-0.22965022519102182,0.013837205268681745,0.028914443945408815,0.13187207965063516,-0.3899135506997324,0.12825980053126795,0.08257566646033443,-0.34902672205650065,-0.15582463581083825,-0.49766818372527516,0.4981236781987559,0.3341932670636109,0.4797322940652211,-0.22774295226758015,0.6726330459775309,-0.09798761959901629,0.29005099224213965,-0.1850314239812841,-0.252769251781196,-0.12073495763638613,0.14229253727488012,-0.4521591980785992,-0.5676386941859767,0.16300979072944527,0.1400219830036918,0.38574519131604873,-0.16565312958536155,0.8565177304322878,0.7223214113149847,-0.07997825135527403,0.10443084106591051,-0.6080132369378026,-0.5432568137539816,-0.49749038367922566,-0.17010596159364924,-0.050189912517338266,0.18714922473101492,0.8906233920323056,0.19881428545081833,-0.49819417697694696,-0.1336079044543915,-0.5620767693845667,0.1723730951439689,-0.566427396679741,0.3682217154120343,0.3329326142946762,0.3228891896058982,0.7638948504660656,-0.3077342518460239,0.311543849663659,-0.4046098324006406,0.30266718529090103,-1.0073832638068776,0.08846482599129238,-0.2771998310207412,0.43708187071735677,-0.17955088395864743,0.08430436374195598,-0.3041647640250679,-0.16670621968093666,-0.180445064392844,-0.05464959333838698,0.21542926298089488,-0.15752535576650065,0.06336012022971008,0.009159980526153532,-0.025793605765671933,0.21808478843841309,0.23853651339304535,-0.15564703256159196,-0.10449494338809671,-0.1690814289143352,-0.18272263859415344,-0.17695782790888498,-0.1494773680002741,0.07004257609238251,0.15924917768376928,0.25440486438113746,0.05484200282939587,0.6764412557130011,-0.07216908587627684,0.7204324833354644,-0.11757881965951072,0.5163898694719681,-0.25918715938712583,0.39949933292088496,-0.23227765470345035,-0.3206806489189271,0.08100129633576096,0.05862401815318823,9.972703140730154E-4,0.5637158066415527,0.053364584137800555,-0.353182456640005,-0.3463848317344806,-0.05492854094609535,0.0995630203169636,0.6565705113675546,-0.164730796645907,0.7415064481514606,-0.05052245054696789,-0.45069622457208175,0.1821871595247876,0.3536511793706878,-0.5660663610967243,0.34507523925035616,-0.5718172988111173,0.42843972041352824,0.003126444017238213,0.148629598298743,0.06708570966802246,0.2848857349072171,-0.09566986172753703,0.011922635746680937,-0.5398795698718002,0.450871061659257,0.6418646595093374,-0.34467951362817095,0.002074534070477462,-0.004009891216776842,0.24139178942851738,-0.3638978342079503,0.08504410670357651,0.3602675307828107,0.39306102244645025,-0.46992942777090174,-0.27083971119183614,-0.3388776242228255,0.3817159833231235,0.20884157363624567,-0.13771343468293992,0.492472899657678,-0.5768029928248697,0.34245402432994476,0.4210500632853135,0.2445150892547348,-0.5509999545743517,0.03914702182596377,0.3419649799206778,-0.05309531958656333,-0.04861182755866319,0.21534619999064958,0.2032100074003025,0.40383467785754523,-0.6594579996218208,0.46541412002438315,-0.6118973050274076,0.3330788624925328,-0.2541948775895617,-0.2657167516976518,-0.12487202639657209,0.36280251837420663,0.23471922601363315,-0.4012027889273758,-0.07980553563923959,-0.007076584646913264,0.15109954046952917,-0.04728664096160146,0.01076379584443828,-0.12667459565166592,0.22094001856752232,0.23142812388802306,0.07621080587798214,0.03137047506416347,-0.3097023502171808,0.05982439803240606,0.08841735433886899,0.15442840864033433,-0.2189744240682845,-0.016205535051682044,0.07033136463978443,-0.0115322448254529,0.11199175965015723,0.04460401123477285,-0.09763246550127612,-0.11255646739216403,-0.4088032617365866,0.04623547140298544,-0.14299964632030032,0.0023956420957879764,-0.021772808369403318,-0.14405793066534156,0.23157297241603444,0.22822574099155823,-0.02927433806582711,-0.3045533537362662,0.35418489094504996,0.014882956492004636,-0.029254431437545615,0.009727006238191628,-0.004527690397141729,0.08338715531060208,0.018772947553490384,-0.054436424859817915,-0.0071944711042920585,0.024293140005169585,0.05616554374615685,0.06428146429977638,-0.0019183393506808036,0.0034935802231554377,0.0272892983343864,0.03781375416254096,0.028721688502308225,0.042893361051406544,0.0479650356312338,-0.032707487771057406,0.06588509173520216,0.025048501651220634,0.0861100786628204,0.030731972132881015,0.033499478191503104,-0.048868810077753594,-0.02699908527753925,0.02957596047769351,0.013193489895520431,0.03481472644933429,0.014713027970994894,0.033524717753107516,-0.0195575329460662
0.024360955600254794,-1.6439084299372644,0.1359441963329375,0.6165942969403713,-1.4204681495778229,-0.06919788380383536,0.6296498279974242,-1.5177809933655713,0.9302723716996409,0.061613960273663344,1.0644052341300543,0.8741644066380337,0.10501027996429146,-0.4482980915755919,-3.436305409738116,-0.030722096856326396,-1.1332561922969258,0.47395428383043614,-0.11220045773805817,0.34022396911269864,-2.0336948026344803,0.24655164089342885,-2.093719622651549,0.36629234193730986,1.0171834660624048,0.31641319727482636,-1.7545967022347293,-0.1952369653084286,0.4978361536321522,0.7662573410976082,0.27251215245035826,-0.10261665101273457,-1.240644238629631,-1.1414592045062406,0.20263176786443235,1.2839975839189915E-4,0.0023698823663599934,-1.7620625160898142,0.1992861821362027,0.05714359695373361,0.2257907034845796,-1.8985210467421378,-1.2283144974989122,-1.5510723751361124,0.22381354187604505,1.5010313426069863,0.4597464671180186,0.4837454048512613,-1.3241242052059732,-1.4836996557061595,-0.757455494463779,-0.7450709091406013,0.3462377811959926,-1.5720267764717668,0.4837616612754242,-0.8433319997898292,-0.007280627115435633,0.884517818938491,0.5104706128966303,-1.3151045064330504,-0.2624787005071431,1.766750478760659,0.6525555602574962,-0.5141593386844004,-0.16643357746598222,-0.7215477451755156,-0.36414429621338956,-1.1859969670572563,-1.6979715642595035,-1.068722639585951,-0.6061947093908812,0.11966331924821386,-0.1362975178502041,1.2534981503568319,-1.1635690714629796,-1.752960031001496,0.2083459958810966,0.8105307561122577,0.8791811429836242,-1.8908323231325674,0.1265985473001636,0.5521996576746558,-0.4548325533377193,0.18655960750137396,-0.10752640116207063,-0.8437452088949332,-0.3015482143749887,-0.33890664471777837,-1.5945781699004515,-1.1232259078804196,-0.11014734594634171,-1.32387280959012,-1.2078795646174936,1.316259319769807,0.24674137863554543,-1.2862153167744312,0.42677333595936295,0.3052829045078306,-1.7839958090293973,-0.5160255282812111,0.4461940195101634,-1.9794963712743348,0.8645189726161678,-0.5558566528121757,-0.6432792692653306,0.3074083234712681,-1.7118493716550482,0.36074092755663695,0.7900466139848371,0.19302448867627767,-2.0259664386084144,0.39079046742908685,0.12791580955773113,-0.8896778668276779,-1.8375423081181708,0.12217514589029443,-1.4964008087070881,0.17424545126136176,0.2860990875197306,1.3652619373363961,-0.88122389595584,-0.16964641857440413,0.14036045197087235,-1.3505894177735585,0.589796667358192,-1.6568380347838865,0.16716346522077416,0.32368637633849345,1.250954595763284,-1.3773141773158797,0.4657643536465092,-0.16306616934381793,-2.5510230967239207,0.48382643775052464,0.6605183200899856,-0.20546303385082507,-1.844054897815322,-0.2970870382622868,0.27974635758342614,-0.2864668190460658,0.5036827306639108,-0.4454784918777377,-0.31725476976638634,-1.1663804775476492,0.7919735338664778,-1.375931217330918,-1.4615236770410116,0.38269990633227885,-1.3257072137122017,1.1017937146944499,0.19303605623229214,0.9280065555924238,0.7726677798901146,-0.3291197867489663,0.6828967732817358,-0.4510991835697476,-2.6750609286211695,-0.30890167173576977,-1.4344794336838094,-1.0359266994231022,-0.14526391240488898,-1.6739876929201416,-0.020232190114892978,0.0016555382418759037,-0.6177734783681247,-3.0711878855391954,-0.08074652361215591,-0.12371820166601387,0.17618603418864254,1.3663955038280091,-1.603867231724942,0.40509905409128755,-0.2468380704520178,0.6544568222787491,-0.03640132281266764,0.3261334800332631,0.2567202939439913,0.09200028969223187,-1.0165030750178352,-1.6449974359794008,-1.7301679733168724,1.4237580917254131,0.4345462490365835,0.02987242798112889,-1.6705453860463195,0.5229882895396414,-0.558501478101778,-0.9587377551911171,-0.6475903733257404,0.9191650977729748,-0.22123567754498313,-1.589166107681191,0.8864576402914104,1.176360651918444,-1.127215164714458,0.5553577505800043,0.6149757203526965,0.7476893392387387,-1.822547181597259,-1.7937581013153692,0.2031830841987151,-1.8798033263988212,0.030831649543163732,0.677692781936374,-1.5626042437207481,-0.18771156198968822,0.767192795233486,-1.0564529038973314,1.4831323876272215,-1.3064568576690965,-0.7790580788233038,-0.49005196409049323,-1.6539000340256063,0.4116504234376262,0.43807100530041576,0.30540186624429577,-1.1756801128910397,0.13364391791681535,-2.730226175065548,0.8242825314510883,0.04722615745261338,-1.1231639690300004,1.0098936405134094,-2.2291124281476358,0.30980063055365864,0.5534159122055039,-0.40141788639064063,-1.995175312357674,-0.15653914481904094,1.3498907276944945,0.7236513198384338,-1.2267199182952593,-0.2650437493099272,-1.1076410498260572,0.22236399541118973,-1.7252817042180104,-0.8678071354146412,1.234582177877338,-1.1098891925505987,1.220074909264761,-1.6492282709678319,1.3575097437315051,0.3253529953666345,0.39679224862106177,-1.5837371427910227,0.017902229609049605,0.9822418171697803,-2.5115629964473336,-1.3171882420327805,0.556712339606348,-1.1113074550021904,1.5066111608960424,-0.9566575707638604,-0.10640013546217343,1.0923311167489842,-1.2451201405713765,0.7605781882535707,-1.05378303176794,-2.1458201940240005,-1.2514761049356586,0.21838569392772453,-1.544807096900666,-0.9603143471441484,-1.2880673229485802,0.623437095743,0.7797426592796871,-0.10090076847698252,-1.576472113550448,0.8475955966478833,0.17091787171434128,-1.2285390390709434,-0.006725127247163994,-1.6988511088399123,-1.6398672209005434,-0.3449187664319389,0.6451875782870997,0.913373806082014,0.8159383155526369,1.015230431540908,-1.369114539284454,-0.37763644278328934,0.1420156363428369,1.1345542123431291,-2.2581755447014746,-0.5922546700821031,1.5315572359318546,0.33021956570181266,1.1663139323942475,-1.2102672541736674,-1.7014273521063341,1.1361657989183562,-1.6824574928637515,1.1373792716464586,-0.9330565977775531,0.43550323384872436,-0.9214248131522337,0.13595672549487017,-0.5049387402349217,-1.7028522621595314,-1.223687935972435,0.4612635365928717,-1.4063568691537793,-0.3959792567691061,1.389858899077796,-0.40814329836427793,-0.1551266239270817,0.45098534043463206,-0.8976326231941157,0.4209108553153641,-1.5992633417216682,0.8032351079052147,1.0472792826168964,-1.5921607566781701,-0.7764561421703469,0.7213597279917594,-1.5896756648420571,0.433694269967471,-1.1422937615620783,1.6970507203240313,-2.4480396081689864,-0.5183499871962711,-0.916486241586424,-0.5529314652541525,-0.5699650310311504,-0.5259961675070313,-0.8131014566500604,-0.5612855281649708,-0.5941795890221853,-1.3079713604835954,-0.9487048498556109
